digraph Tree {
node [shape=box] ;
0 [label="Income <= 113.5\ngini = 0.174\nsamples = 5000\nvalue = [4520, 480]"] ;
1 [label="CCAvg <= 2.95\ngini = 0.041\nsamples = 4021\nvalue = [3937, 84]"] ;
0 -> 1 [labeldistance=2.5, labelangle=45, headlabel="True"] ;
2 [label="Income <= 106.5\ngini = 0.007\nsamples = 3723\nvalue = [3710, 13]"] ;
1 -> 2 ;
3 [label="gini = 0.0\nsamples = 3629\nvalue = [3629, 0]"] ;
2 -> 3 ;
4 [label="Family <= 3.5\ngini = 0.238\nsamples = 94\nvalue = [81, 13]"] ;
2 -> 4 ;
5 [label="Education <= 1.5\ngini = 0.157\nsamples = 70\nvalue = [64, 6]"] ;
4 -> 5 ;
6 [label="gini = 0.0\nsamples = 41\nvalue = [41, 0]"] ;
5 -> 6 ;
7 [label="CCAvg <= 1.65\ngini = 0.328\nsamples = 29\nvalue = [23, 6]"] ;
5 -> 7 ;
8 [label="Family <= 1.5\ngini = 0.43\nsamples = 16\nvalue = [11, 5]"] ;
7 -> 8 ;
9 [label="Education <= 2.5\ngini = 0.198\nsamples = 9\nvalue = [8, 1]"] ;
8 -> 9 ;
10 [label="CCAvg <= 0.95\ngini = 0.5\nsamples = 2\nvalue = [1, 1]"] ;
9 -> 10 ;
11 [label="gini = 0.0\nsamples = 1\nvalue = [1, 0]"] ;
10 -> 11 ;
12 [label="gini = 0.0\nsamples = 1\nvalue = [0, 1]"] ;
10 -> 12 ;
13 [label="gini = 0.0\nsamples = 7\nvalue = [7, 0]"] ;
9 -> 13 ;
14 [label="Income <= 111.5\ngini = 0.49\nsamples = 7\nvalue = [3, 4]"] ;
8 -> 14 ;
15 [label="CCAvg <= 1.35\ngini = 0.48\nsamples = 5\nvalue = [3, 2]"] ;
14 -> 15 ;
16 [label="Income <= 108.5\ngini = 0.444\nsamples = 3\nvalue = [1, 2]"] ;
15 -> 16 ;
17 [label="gini = 0.0\nsamples = 1\nvalue = [1, 0]"] ;
16 -> 17 ;
18 [label="gini = 0.0\nsamples = 2\nvalue = [0, 2]"] ;
16 -> 18 ;
19 [label="gini = 0.0\nsamples = 2\nvalue = [2, 0]"] ;
15 -> 19 ;
20 [label="gini = 0.0\nsamples = 2\nvalue = [0, 2]"] ;
14 -> 20 ;
21 [label="Income <= 108.5\ngini = 0.142\nsamples = 13\nvalue = [12, 1]"] ;
7 -> 21 ;
22 [label="CCAvg <= 2.575\ngini = 0.5\nsamples = 2\nvalue = [1, 1]"] ;
21 -> 22 ;
23 [label="gini = 0.0\nsamples = 1\nvalue = [1, 0]"] ;
22 -> 23 ;
24 [label="gini = 0.0\nsamples = 1\nvalue = [0, 1]"] ;
22 -> 24 ;
25 [label="gini = 0.0\nsamples = 11\nvalue = [11, 0]"] ;
21 -> 25 ;
26 [label="Education <= 1.5\ngini = 0.413\nsamples = 24\nvalue = [17, 7]"] ;
4 -> 26 ;
27 [label="gini = 0.0\nsamples = 3\nvalue = [0, 3]"] ;
26 -> 27 ;
28 [label="CCAvg <= 1.15\ngini = 0.308\nsamples = 21\nvalue = [17, 4]"] ;
26 -> 28 ;
29 [label="gini = 0.0\nsamples = 1\nvalue = [0, 1]"] ;
28 -> 29 ;
30 [label="CCAvg <= 2.45\ngini = 0.255\nsamples = 20\nvalue = [17, 3]"] ;
28 -> 30 ;
31 [label="Education <= 2.5\ngini = 0.188\nsamples = 19\nvalue = [17, 2]"] ;
30 -> 31 ;
32 [label="CCAvg <= 1.75\ngini = 0.48\nsamples = 5\nvalue = [3, 2]"] ;
31 -> 32 ;
33 [label="gini = 0.0\nsamples = 1\nvalue = [0, 1]"] ;
32 -> 33 ;
34 [label="Income <= 108.5\ngini = 0.375\nsamples = 4\nvalue = [3, 1]"] ;
32 -> 34 ;
35 [label="CCAvg <= 1.85\ngini = 0.5\nsamples = 2\nvalue = [1, 1]"] ;
34 -> 35 ;
36 [label="gini = 0.0\nsamples = 1\nvalue = [1, 0]"] ;
35 -> 36 ;
37 [label="gini = 0.0\nsamples = 1\nvalue = [0, 1]"] ;
35 -> 37 ;
38 [label="gini = 0.0\nsamples = 2\nvalue = [2, 0]"] ;
34 -> 38 ;
39 [label="gini = 0.0\nsamples = 14\nvalue = [14, 0]"] ;
31 -> 39 ;
40 [label="gini = 0.0\nsamples = 1\nvalue = [0, 1]"] ;
30 -> 40 ;
41 [label="Income <= 82.5\ngini = 0.363\nsamples = 298\nvalue = [227, 71]"] ;
1 -> 41 ;
42 [label="CCAvg <= 3.55\ngini = 0.142\nsamples = 117\nvalue = [108, 9]"] ;
41 -> 42 ;
43 [label="CCAvg <= 3.45\ngini = 0.269\nsamples = 50\nvalue = [42, 8]"] ;
42 -> 43 ;
44 [label="Family <= 1.5\ngini = 0.245\nsamples = 49\nvalue = [42, 7]"] ;
43 -> 44 ;
45 [label="Education <= 2.5\ngini = 0.444\nsamples = 6\nvalue = [4, 2]"] ;
44 -> 45 ;
46 [label="gini = 0.0\nsamples = 2\nvalue = [0, 2]"] ;
45 -> 46 ;
47 [label="gini = 0.0\nsamples = 4\nvalue = [4, 0]"] ;
45 -> 47 ;
48 [label="Income <= 59.5\ngini = 0.206\nsamples = 43\nvalue = [38, 5]"] ;
44 -> 48 ;
49 [label="gini = 0.0\nsamples = 7\nvalue = [7, 0]"] ;
48 -> 49 ;
50 [label="Income <= 60.5\ngini = 0.239\nsamples = 36\nvalue = [31, 5]"] ;
48 -> 50 ;
51 [label="CCAvg <= 3.1\ngini = 0.5\nsamples = 2\nvalue = [1, 1]"] ;
50 -> 51 ;
52 [label="gini = 0.0\nsamples = 1\nvalue = [0, 1]"] ;
51 -> 52 ;
53 [label="gini = 0.0\nsamples = 1\nvalue = [1, 0]"] ;
51 -> 53 ;
54 [label="Education <= 1.5\ngini = 0.208\nsamples = 34\nvalue = [30, 4]"] ;
50 -> 54 ;
55 [label="CCAvg <= 3.25\ngini = 0.091\nsamples = 21\nvalue = [20, 1]"] ;
54 -> 55 ;
56 [label="gini = 0.0\nsamples = 13\nvalue = [13, 0]"] ;
55 -> 56 ;
57 [label="CCAvg <= 3.35\ngini = 0.219\nsamples = 8\nvalue = [7, 1]"] ;
55 -> 57 ;
58 [label="gini = 0.0\nsamples = 1\nvalue = [0, 1]"] ;
57 -> 58 ;
59 [label="gini = 0.0\nsamples = 7\nvalue = [7, 0]"] ;
57 -> 59 ;
60 [label="Income <= 63.0\ngini = 0.355\nsamples = 13\nvalue = [10, 3]"] ;
54 -> 60 ;
61 [label="gini = 0.0\nsamples = 3\nvalue = [3, 0]"] ;
60 -> 61 ;
62 [label="Income <= 71.5\ngini = 0.42\nsamples = 10\nvalue = [7, 3]"] ;
60 -> 62 ;
63 [label="CCAvg <= 3.15\ngini = 0.444\nsamples = 3\nvalue = [1, 2]"] ;
62 -> 63 ;
64 [label="gini = 0.0\nsamples = 2\nvalue = [0, 2]"] ;
63 -> 64 ;
65 [label="gini = 0.0\nsamples = 1\nvalue = [1, 0]"] ;
63 -> 65 ;
66 [label="CCAvg <= 3.3\ngini = 0.245\nsamples = 7\nvalue = [6, 1]"] ;
62 -> 66 ;
67 [label="gini = 0.0\nsamples = 5\nvalue = [5, 0]"] ;
66 -> 67 ;
68 [label="Income <= 81.5\ngini = 0.5\nsamples = 2\nvalue = [1, 1]"] ;
66 -> 68 ;
69 [label="gini = 0.0\nsamples = 1\nvalue = [0, 1]"] ;
68 -> 69 ;
70 [label="gini = 0.0\nsamples = 1\nvalue = [1, 0]"] ;
68 -> 70 ;
71 [label="gini = 0.0\nsamples = 1\nvalue = [0, 1]"] ;
43 -> 71 ;
72 [label="Income <= 81.5\ngini = 0.029\nsamples = 67\nvalue = [66, 1]"] ;
42 -> 72 ;
73 [label="gini = 0.0\nsamples = 60\nvalue = [60, 0]"] ;
72 -> 73 ;
74 [label="Family <= 2.0\ngini = 0.245\nsamples = 7\nvalue = [6, 1]"] ;
72 -> 74 ;
75 [label="gini = 0.0\nsamples = 5\nvalue = [5, 0]"] ;
74 -> 75 ;
76 [label="CCAvg <= 3.75\ngini = 0.5\nsamples = 2\nvalue = [1, 1]"] ;
74 -> 76 ;
77 [label="gini = 0.0\nsamples = 1\nvalue = [0, 1]"] ;
76 -> 77 ;
78 [label="gini = 0.0\nsamples = 1\nvalue = [1, 0]"] ;
76 -> 78 ;
79 [label="Education <= 1.5\ngini = 0.45\nsamples = 181\nvalue = [119, 62]"] ;
41 -> 79 ;
80 [label="CCAvg <= 4.25\ngini = 0.299\nsamples = 93\nvalue = [76, 17]"] ;
79 -> 80 ;
81 [label="Family <= 2.5\ngini = 0.44\nsamples = 46\nvalue = [31, 15]"] ;
80 -> 81 ;
82 [label="Income <= 83.5\ngini = 0.339\nsamples = 37\nvalue = [29, 8]"] ;
81 -> 82 ;
83 [label="gini = 0.0\nsamples = 3\nvalue = [0, 3]"] ;
82 -> 83 ;
84 [label="CCAvg <= 4.05\ngini = 0.251\nsamples = 34\nvalue = [29, 5]"] ;
82 -> 84 ;
85 [label="Income <= 100.0\ngini = 0.17\nsamples = 32\nvalue = [29, 3]"] ;
84 -> 85 ;
86 [label="gini = 0.0\nsamples = 14\nvalue = [14, 0]"] ;
85 -> 86 ;
87 [label="Income <= 104.5\ngini = 0.278\nsamples = 18\nvalue = [15, 3]"] ;
85 -> 87 ;
88 [label="CCAvg <= 3.55\ngini = 0.48\nsamples = 5\nvalue = [2, 3]"] ;
87 -> 88 ;
89 [label="Family <= 1.5\ngini = 0.444\nsamples = 3\nvalue = [2, 1]"] ;
88 -> 89 ;
90 [label="Income <= 103.5\ngini = 0.5\nsamples = 2\nvalue = [1, 1]"] ;
89 -> 90 ;
91 [label="gini = 0.0\nsamples = 1\nvalue = [0, 1]"] ;
90 -> 91 ;
92 [label="gini = 0.0\nsamples = 1\nvalue = [1, 0]"] ;
90 -> 92 ;
93 [label="gini = 0.0\nsamples = 1\nvalue = [1, 0]"] ;
89 -> 93 ;
94 [label="gini = 0.0\nsamples = 2\nvalue = [0, 2]"] ;
88 -> 94 ;
95 [label="gini = 0.0\nsamples = 13\nvalue = [13, 0]"] ;
87 -> 95 ;
96 [label="gini = 0.0\nsamples = 2\nvalue = [0, 2]"] ;
84 -> 96 ;
97 [label="Income <= 88.0\ngini = 0.346\nsamples = 9\nvalue = [2, 7]"] ;
81 -> 97 ;
98 [label="CCAvg <= 3.25\ngini = 0.444\nsamples = 3\nvalue = [2, 1]"] ;
97 -> 98 ;
99 [label="gini = 0.0\nsamples = 1\nvalue = [0, 1]"] ;
98 -> 99 ;
100 [label="gini = 0.0\nsamples = 2\nvalue = [2, 0]"] ;
98 -> 100 ;
101 [label="gini = 0.0\nsamples = 6\nvalue = [0, 6]"] ;
97 -> 101 ;
102 [label="CCAvg <= 4.65\ngini = 0.081\nsamples = 47\nvalue = [45, 2]"] ;
80 -> 102 ;
103 [label="Income <= 100.0\ngini = 0.188\nsamples = 19\nvalue = [17, 2]"] ;
102 -> 103 ;
104 [label="Income <= 96.5\ngini = 0.408\nsamples = 7\nvalue = [5, 2]"] ;
103 -> 104 ;
105 [label="gini = 0.0\nsamples = 5\nvalue = [5, 0]"] ;
104 -> 105 ;
106 [label="gini = 0.0\nsamples = 2\nvalue = [0, 2]"] ;
104 -> 106 ;
107 [label="gini = 0.0\nsamples = 12\nvalue = [12, 0]"] ;
103 -> 107 ;
108 [label="gini = 0.0\nsamples = 28\nvalue = [28, 0]"] ;
102 -> 108 ;
109 [label="Income <= 92.5\ngini = 0.5\nsamples = 88\nvalue = [43, 45]"] ;
79 -> 109 ;
110 [label="Education <= 2.5\ngini = 0.388\nsamples = 38\nvalue = [28, 10]"] ;
109 -> 110 ;
111 [label="Income <= 87.0\ngini = 0.5\nsamples = 10\nvalue = [5, 5]"] ;
110 -> 111 ;
112 [label="CCAvg <= 3.75\ngini = 0.408\nsamples = 7\nvalue = [5, 2]"] ;
111 -> 112 ;
113 [label="Family <= 3.5\ngini = 0.278\nsamples = 6\nvalue = [5, 1]"] ;
112 -> 113 ;
114 [label="gini = 0.0\nsamples = 3\nvalue = [3, 0]"] ;
113 -> 114 ;
115 [label="Income <= 84.5\ngini = 0.444\nsamples = 3\nvalue = [2, 1]"] ;
113 -> 115 ;
116 [label="gini = 0.0\nsamples = 1\nvalue = [0, 1]"] ;
115 -> 116 ;
117 [label="gini = 0.0\nsamples = 2\nvalue = [2, 0]"] ;
115 -> 117 ;
118 [label="gini = 0.0\nsamples = 1\nvalue = [0, 1]"] ;
112 -> 118 ;
119 [label="gini = 0.0\nsamples = 3\nvalue = [0, 3]"] ;
111 -> 119 ;
120 [label="CCAvg <= 3.65\ngini = 0.293\nsamples = 28\nvalue = [23, 5]"] ;
110 -> 120 ;
121 [label="CCAvg <= 3.2\ngini = 0.5\nsamples = 10\nvalue = [5, 5]"] ;
120 -> 121 ;
122 [label="gini = 0.0\nsamples = 4\nvalue = [4, 0]"] ;
121 -> 122 ;
123 [label="CCAvg <= 3.5\ngini = 0.278\nsamples = 6\nvalue = [1, 5]"] ;
121 -> 123 ;
124 [label="gini = 0.0\nsamples = 4\nvalue = [0, 4]"] ;
123 -> 124 ;
125 [label="gini = 0.5\nsamples = 2\nvalue = [1, 1]"] ;
123 -> 125 ;
126 [label="gini = 0.0\nsamples = 18\nvalue = [18, 0]"] ;
120 -> 126 ;
127 [label="Family <= 2.5\ngini = 0.42\nsamples = 50\nvalue = [15, 35]"] ;
109 -> 127 ;
128 [label="Education <= 2.5\ngini = 0.49\nsamples = 28\nvalue = [12, 16]"] ;
127 -> 128 ;
129 [label="gini = 0.0\nsamples = 8\nvalue = [0, 8]"] ;
128 -> 129 ;
130 [label="Income <= 109.0\ngini = 0.48\nsamples = 20\nvalue = [12, 8]"] ;
128 -> 130 ;
131 [label="CCAvg <= 3.95\ngini = 0.415\nsamples = 17\nvalue = [12, 5]"] ;
130 -> 131 ;
132 [label="CCAvg <= 3.85\ngini = 0.49\nsamples = 7\nvalue = [3, 4]"] ;
131 -> 132 ;
133 [label="CCAvg <= 3.7\ngini = 0.48\nsamples = 5\nvalue = [3, 2]"] ;
132 -> 133 ;
134 [label="Income <= 97.0\ngini = 0.444\nsamples = 3\nvalue = [1, 2]"] ;
133 -> 134 ;
135 [label="gini = 0.0\nsamples = 1\nvalue = [1, 0]"] ;
134 -> 135 ;
136 [label="gini = 0.0\nsamples = 2\nvalue = [0, 2]"] ;
134 -> 136 ;
137 [label="gini = 0.0\nsamples = 2\nvalue = [2, 0]"] ;
133 -> 137 ;
138 [label="gini = 0.0\nsamples = 2\nvalue = [0, 2]"] ;
132 -> 138 ;
139 [label="CCAvg <= 4.65\ngini = 0.18\nsamples = 10\nvalue = [9, 1]"] ;
131 -> 139 ;
140 [label="gini = 0.0\nsamples = 9\nvalue = [9, 0]"] ;
139 -> 140 ;
141 [label="gini = 0.0\nsamples = 1\nvalue = [0, 1]"] ;
139 -> 141 ;
142 [label="gini = 0.0\nsamples = 3\nvalue = [0, 3]"] ;
130 -> 142 ;
143 [label="CCAvg <= 3.45\ngini = 0.236\nsamples = 22\nvalue = [3, 19]"] ;
127 -> 143 ;
144 [label="CCAvg <= 3.2\ngini = 0.5\nsamples = 6\nvalue = [3, 3]"] ;
143 -> 144 ;
145 [label="gini = 0.0\nsamples = 2\nvalue = [0, 2]"] ;
144 -> 145 ;
146 [label="Education <= 2.5\ngini = 0.375\nsamples = 4\nvalue = [3, 1]"] ;
144 -> 146 ;
147 [label="gini = 0.0\nsamples = 3\nvalue = [3, 0]"] ;
146 -> 147 ;
148 [label="gini = 0.0\nsamples = 1\nvalue = [0, 1]"] ;
146 -> 148 ;
149 [label="gini = 0.0\nsamples = 16\nvalue = [0, 16]"] ;
143 -> 149 ;
150 [label="Education <= 1.5\ngini = 0.482\nsamples = 979\nvalue = [583, 396]"] ;
0 -> 150 [labeldistance=2.5, labelangle=-45, headlabel="False"] ;
151 [label="Family <= 2.5\ngini = 0.194\nsamples = 635\nvalue = [566, 69]"] ;
150 -> 151 ;
152 [label="gini = 0.0\nsamples = 566\nvalue = [566, 0]"] ;
151 -> 152 ;
153 [label="gini = 0.0\nsamples = 69\nvalue = [0, 69]"] ;
151 -> 153 ;
154 [label="Income <= 116.5\ngini = 0.094\nsamples = 344\nvalue = [17, 327]"] ;
150 -> 154 ;
155 [label="CCAvg <= 2.15\ngini = 0.491\nsamples = 30\nvalue = [17, 13]"] ;
154 -> 155 ;
156 [label="CCAvg <= 0.55\ngini = 0.26\nsamples = 13\nvalue = [11, 2]"] ;
155 -> 156 ;
157 [label="gini = 0.0\nsamples = 1\nvalue = [0, 1]"] ;
156 -> 157 ;
158 [label="Income <= 114.5\ngini = 0.153\nsamples = 12\nvalue = [11, 1]"] ;
156 -> 158 ;
159 [label="gini = 0.0\nsamples = 7\nvalue = [7, 0]"] ;
158 -> 159 ;
160 [label="Family <= 1.5\ngini = 0.32\nsamples = 5\nvalue = [4, 1]"] ;
158 -> 160 ;
161 [label="CCAvg <= 1.1\ngini = 0.444\nsamples = 3\nvalue = [2, 1]"] ;
160 -> 161 ;
162 [label="gini = 0.0\nsamples = 2\nvalue = [2, 0]"] ;
161 -> 162 ;
163 [label="gini = 0.0\nsamples = 1\nvalue = [0, 1]"] ;
161 -> 163 ;
164 [label="gini = 0.0\nsamples = 2\nvalue = [2, 0]"] ;
160 -> 164 ;
165 [label="CCAvg <= 4.0\ngini = 0.457\nsamples = 17\nvalue = [6, 11]"] ;
155 -> 165 ;
166 [label="CCAvg <= 3.35\ngini = 0.497\nsamples = 13\nvalue = [6, 7]"] ;
165 -> 166 ;
167 [label="CCAvg <= 2.8\ngini = 0.444\nsamples = 9\nvalue = [3, 6]"] ;
166 -> 167 ;
168 [label="CCAvg <= 2.3\ngini = 0.5\nsamples = 6\nvalue = [3, 3]"] ;
167 -> 168 ;
169 [label="gini = 0.0\nsamples = 1\nvalue = [0, 1]"] ;
168 -> 169 ;
170 [label="Family <= 1.5\ngini = 0.48\nsamples = 5\nvalue = [3, 2]"] ;
168 -> 170 ;
171 [label="CCAvg <= 2.6\ngini = 0.444\nsamples = 3\nvalue = [1, 2]"] ;
170 -> 171 ;
172 [label="gini = 0.0\nsamples = 2\nvalue = [0, 2]"] ;
171 -> 172 ;
173 [label="gini = 0.0\nsamples = 1\nvalue = [1, 0]"] ;
171 -> 173 ;
174 [label="gini = 0.0\nsamples = 2\nvalue = [2, 0]"] ;
170 -> 174 ;
175 [label="gini = 0.0\nsamples = 3\nvalue = [0, 3]"] ;
167 -> 175 ;
176 [label="CCAvg <= 3.6\ngini = 0.375\nsamples = 4\nvalue = [3, 1]"] ;
166 -> 176 ;
177 [label="gini = 0.0\nsamples = 2\nvalue = [2, 0]"] ;
176 -> 177 ;
178 [label="Family <= 3.0\ngini = 0.5\nsamples = 2\nvalue = [1, 1]"] ;
176 -> 178 ;
179 [label="gini = 0.0\nsamples = 1\nvalue = [1, 0]"] ;
178 -> 179 ;
180 [label="gini = 0.0\nsamples = 1\nvalue = [0, 1]"] ;
178 -> 180 ;
181 [label="gini = 0.0\nsamples = 4\nvalue = [0, 4]"] ;
165 -> 181 ;
182 [label="gini = 0.0\nsamples = 314\nvalue = [0, 314]"] ;
154 -> 182 ;
}